34 128
24 0.230898282779 0.147920723855 0.0983890038597 -0.0854282592425 0.131542569833 -0.00231255957201 -0.0814602754882 -0.055866263529 0.0307533406214 0.462942058476 -0.0328520759593 0.0334393631504 -0.152507414124 -0.152840268247 0.00193237561485 -0.384238685085 0.0718095165021 0.0236278313556 0.117372513494 -0.0600269224994 0.0811215852945 0.108789048327 0.0502648912823 0.189042136495 -0.0584031771642 0.534929393101 0.0304467353613 0.0447411511659 -0.0521313801553 -0.15251597154 -0.0365181981965 0.293714517575 -0.0572366753104 -0.0117112971583 0.0233068976832 0.107541332783 -0.0244460858749 -0.0809089789808 0.00889427418832 -0.201588621266 0.337490796761 0.172463296103 0.268784373305 -0.120618771404 -0.0664752404957 -0.0214613933367 0.0142729014737 0.0219050143854 -0.46432079184 -0.275024034169 -0.353059883164 0.54633122543 0.299736369411 0.407114890245 0.221515151188 -0.289549234885 0.129129070637 -0.214123144963 -0.303993531099 0.269466920762 -0.133545221986 -0.00922181513951 0.0220882405026 -0.280924074785 -0.0250225346766 -0.046042462393 0.0691643991408 -0.114568292263 0.0268176152448 -0.127223556147 0.362917069768 -0.0374744922421 0.104407371476 -0.298696392961 0.179780518918 -0.272187721586 0.258924320204 0.0252519016088 -0.463168666865 0.0379019770519 0.0802953085416 -0.0761148192313 0.0983612698424 -0.0840017733935 0.122968568461 0.0436595528125 -0.0868727944834 -0.133843011413 0.495070021794 0.270025093298 -0.0764811914454 0.23583892699 0.0289830264329 0.0509849127097 0.0875860219372 0.0950928791382 -0.043593986317 -0.15888791371 -0.0974645279184 -0.213321732459 0.09352174623 -0.494454364368 0.0460283127376 -0.142955328378 -0.0463071008778 -0.195091146782 0.10227777692 0.158919572909 -0.370825999527 0.31292734262 0.113350644943 0.0880407454589 -0.0806261117608 -0.16155212544 0.0702550771045 -0.114343578656 -0.148076522151 0.129404282813 -0.0991852760109 0.104223485689 0.343574286543 0.558839176928 -0.402845412211 0.0350897857868 -0.332339704895 -0.444765503025 0.156843600367 -0.0858467307415
25 0.230898282779 0.147920723855 0.0983890038597 -0.0854282592425 0.131542569833 -0.00231255957201 -0.0814602754882 -0.055866263529 0.0307533406214 0.462942058476 -0.0328520759593 0.0334393631504 -0.152507414124 -0.152840268247 0.00193237561485 -0.384238685085 0.0718095165021 0.0236278313556 0.117372513494 -0.0600269224994 0.0811215852945 0.108789048327 0.0502648912823 0.189042136495 -0.0584031771642 0.534929393101 0.0304467353613 0.0447411511659 -0.0521313801553 -0.15251597154 -0.0365181981965 0.293714517575 -0.0572366753104 -0.0117112971583 0.0233068976832 0.107541332783 -0.0244460858749 -0.0809089789808 0.00889427418832 -0.201588621266 0.337490796761 0.172463296103 0.268784373305 -0.120618771404 -0.0664752404957 -0.0214613933367 0.0142729014737 0.0219050143854 -0.46432079184 -0.275024034169 -0.353059883164 0.54633122543 0.299736369411 0.407114890245 0.221515151188 -0.289549234885 0.129129070637 -0.214123144963 -0.303993531099 0.269466920762 -0.133545221986 -0.00922181513951 0.0220882405026 -0.280924074785 -0.0250225346766 -0.046042462393 0.0691643991408 -0.114568292263 0.0268176152448 -0.127223556147 0.362917069768 -0.0374744922421 0.104407371476 -0.298696392961 0.179780518918 -0.272187721586 0.258924320204 0.0252519016088 -0.463168666865 0.0379019770519 0.0802953085416 -0.0761148192313 0.0983612698424 -0.0840017733935 0.122968568461 0.0436595528125 -0.0868727944834 -0.133843011413 0.495070021794 0.270025093298 -0.0764811914454 0.23583892699 0.0289830264329 0.0509849127097 0.0875860219372 0.0950928791382 -0.043593986317 -0.15888791371 -0.0974645279184 -0.213321732459 0.09352174623 -0.494454364368 0.0460283127376 -0.142955328378 -0.0463071008778 -0.195091146782 0.10227777692 0.158919572909 -0.370825999527 0.31292734262 0.113350644943 0.0880407454589 -0.0806261117608 -0.16155212544 0.0702550771045 -0.114343578656 -0.148076522151 0.129404282813 -0.0991852760109 0.104223485689 0.343574286543 0.558839176928 -0.402845412211 0.0350897857868 -0.332339704895 -0.444765503025 0.156843600367 -0.0858467307415
26 0.250132042118 0.104438297465 0.0896677513675 -0.0994482373477 0.203855437832 -0.0510531195371 -0.153128036083 -0.0795508685686 -0.0809745975033 0.470915809553 -0.000790808754543 -0.0867451711201 -0.165648944303 -0.260210838056 0.0564376954515 -0.267371926799 0.228634211401 0.0119069902673 0.149502869263 0.0083179587004 -0.0109333959615 0.0638034237231 0.107977857008 0.181004432463 -0.0996782547873 0.46824353533 -0.037233373473 0.0706399039709 -0.0885785486913 -0.154635972866 -0.0573143521603 0.248556993979 -0.11821955455 -0.0468958194329 0.0503090053462 0.0795006716606 -0.103518515041 -0.0750074109939 -0.0199366333147 -0.186342270537 0.30895550307 0.122989548511 0.191980000694 -0.0752657905435 -0.114985782962 -0.0554634698558 -0.114435137325 -0.087435616407 -0.451275458384 -0.221782633183 -0.453971558629 0.530736784945 0.205060965972 0.447559709901 0.15519440109 -0.247401522341 -0.0592759402595 -0.171083063565 -0.343547561356 0.265261140801 -0.160638065172 -0.101250838244 0.0208445741306 -0.318659596726 0.124402391435 -0.0147921392285 -0.080871042712 -0.0972475486575 0.0395486278203 -0.0527576807463 0.418704008575 -0.00152546296761 0.104968174391 -0.33177078193 0.0784682689272 -0.22619081391 0.269244491602 0.0872234218782 -0.24879844302 -0.0579473311302 0.0173214810225 -0.0465863499426 0.0310279201056 -0.133647911941 0.0681149252664 -0.0297777782589 -0.0256342680598 -0.145873889963 0.564243580323 0.210344201835 -0.0638068147187 0.196061389632 0.126373044542 0.0390582873617 0.010906478078 0.04767916221 -0.0825392557721 -0.108405946802 -0.159604591097 -0.172717300692 0.124071556255 -0.544137740033 0.131582835912 -0.102688097376 -0.0614438106342 -0.173403953748 0.116147478125 0.321355645581 -0.362364447102 0.313816743528 0.118780894616 0.0753980959603 -0.122342733703 -0.131065827163 0.113051118686 -0.0880037246448 -0.103198734244 -0.0583996289743 -0.0643574193062 0.117148853045 0.323905734075 0.646615319191 -0.430922813886 -0.0441146449122 -0.425582650972 -0.488547978305 0.146918314455 -0.120945701803
27 0.250121464671 0.104444472241 0.0896621031176 -0.0994388349507 0.20386164197 -0.0510587114365 -0.153128427724 -0.0795490520194 -0.080975752243 0.470920527784 -0.000788948719275 -0.086747140358 -0.165655100541 -0.260208338682 0.0564372648921 -0.267370028472 0.22863294181 0.0118967061307 0.149505828028 0.00831481801955 -0.010927668809 0.0637997455637 0.107974801809 0.18100574244 -0.0996781582128 0.468248160623 -0.0372301675984 0.0706384499801 -0.0885891348481 -0.154630921708 -0.0573097293281 0.248562153875 -0.118204722935 -0.0468784120158 0.0503179680244 0.0795025179905 -0.103510360986 -0.0750053697793 -0.0199328314444 -0.186347069663 0.308949624438 0.122986250947 0.191971328305 -0.075262372323 -0.114987600852 -0.0554619503553 -0.114437726967 -0.0874376007803 -0.451276828119 -0.221781489556 -0.453973168449 0.530737198244 0.205060838197 0.447547915961 0.155187423961 -0.247411081355 -0.05928403181 -0.171095663955 -0.34354628307 0.265280195046 -0.16063846338 -0.101259712074 0.0208363659702 -0.31866076982 0.124386784016 -0.0147975063324 -0.0808681748785 -0.0972493172019 0.0395544809872 -0.052748750219 0.418713668209 -0.00152967715443 0.104960898751 -0.331773526775 0.0784661554799 -0.226186466976 0.269240345886 0.0872243952329 -0.248802382601 -0.057944913157 0.0173121229025 -0.0466035717987 0.0310201773343 -0.133648465132 0.0681195580497 -0.029782307795 -0.0256326549703 -0.145885207454 0.564232297479 0.210335001333 -0.0638068901599 0.196063717398 0.126374234452 0.0390621155854 0.010909447275 0.0476719679186 -0.0825323526984 -0.108398106088 -0.159602691687 -0.172720908973 0.124068635689 -0.544128062906 0.131582046706 -0.10268283664 -0.061448077591 -0.173405581356 0.116140940772 0.3213569112 -0.362366980918 0.313812033291 0.11876779595 0.0754021767989 -0.122335226907 -0.131062994755 0.113053100227 -0.088012945404 -0.103197456575 -0.0583965582561 -0.0643450223011 0.117142385225 0.323904525814 0.646620180802 -0.43092635696 -0.044110924952 -0.425578639102 -0.488544088971 0.146912841191 -0.120944073149
20 0.250555082176 0.104740882307 0.090050898406 -0.0996124338321 0.203286446973 -0.0509730237502 -0.153501861866 -0.0793960407925 -0.0818284256732 0.47045961248 -0.00155717870776 -0.0867892406915 -0.165063062474 -0.259605102445 0.0573814793935 -0.267336679773 0.228956460521 0.0118158342744 0.150765805576 0.0087520081479 -0.0112355334258 0.063191801439 0.107309965595 0.181878206014 -0.0986970578131 0.469075433494 -0.0363922488003 0.0706675569758 -0.0890973185122 -0.154205623957 -0.057759285348 0.249181632843 -0.117518877503 -0.0466075302254 0.0498157624283 0.0798821898096 -0.103737318907 -0.0753837089837 -0.0200642144375 -0.185150664991 0.309794997096 0.123372926748 0.192713647688 -0.0753026143657 -0.115282001236 -0.0554180161284 -0.114968038653 -0.0872616565398 -0.450508385245 -0.221498904568 -0.453790816644 0.530737506791 0.20497897639 0.447798047204 0.155577906905 -0.247453952662 -0.0586934510693 -0.170679256194 -0.343747687114 0.265990974527 -0.16036871193 -0.101812502725 0.0218786751068 -0.318225587834 0.124733030859 -0.0149688873476 -0.0802576105339 -0.0972870557429 0.0390059987875 -0.0524272747764 0.418196570895 -0.00108381359682 0.104919111133 -0.332086814327 0.0783388706701 -0.226486512612 0.269244765515 0.0883024470716 -0.247968937491 -0.0573915489718 0.0174568703107 -0.0463373218455 0.0307563830248 -0.133747413602 0.0677245506954 -0.030557358193 -0.0259687229229 -0.147578993594 0.563342207748 0.21030672006 -0.0627200269912 0.196807189961 0.12680841602 0.0385693965554 0.0120991280472 0.0468855889854 -0.0822258184892 -0.10793876966 -0.159594161615 -0.172445971379 0.122967583158 -0.544539613195 0.132176649956 -0.102952719041 -0.0615762106291 -0.174816049639 0.115701172742 0.321031248757 -0.361304102717 0.313049881467 0.119237870906 0.0746577156816 -0.122383900579 -0.130722393598 0.113513987729 -0.089403015834 -0.10416244879 -0.0575750152473 -0.0645286237996 0.117454972639 0.323693811494 0.646784338044 -0.431839524644 -0.044013685793 -0.425247979559 -0.487648412512 0.147044009086 -0.120795110647
21 0.267672006431 0.039703631041 0.0280674869118 -0.0380093873869 0.235080135086 -0.0242604550783 -0.113979818362 -0.0955906110839 0.0387662493778 0.427643168563 -0.0160225225827 -0.0338135364687 -0.115382559507 -0.172691895767 -0.0173036478103 -0.340184920356 0.190661069251 -0.0728955843179 0.137327294334 -0.022792886848 0.0388523061854 0.148509825854 0.0622204129557 0.17670053648 -0.141216778135 0.48241749377 -0.013726265209 -0.00549569912618 -0.033384774918 -0.152760812788 -0.124827516769 0.232672539721 -0.0840154726425 0.0867323061263 0.0218453417934 0.157722540014 0.0511579563667 -0.0909653499549 0.0380296319904 -0.155403580546 0.32949330817 0.214999883377 0.211104732549 -0.111780550276 -0.086892685393 -0.0698989578459 -0.168656954824 -0.103154278763 -0.510629869605 -0.254014946832 -0.349287602551 0.528051610094 0.275253369786 0.413673033151 0.2103042117 -0.287874317166 0.0654458494462 -0.219268960542 -0.298960133711 0.27645338963 -0.0784203140935 -0.107241223673 -0.0194186933105 -0.38174811858 0.0201523928893 0.0103004257568 -0.0731214520243 -0.0323191655078 0.049887254262 -0.126010642855 0.397299173298 -0.0237637122792 0.186370599605 -0.308343034381 0.0873680016607 -0.342500768528 0.423235482984 0.03875251058 -0.251968542 -0.0342379120601 0.0753871680089 -0.0390657957151 0.0668336587591 -0.142248543409 0.0612169174557 0.00121660445602 -0.120573502459 -0.0928037989365 0.515961897416 0.229912023083 -0.0221448796984 0.155705876105 0.121081150237 0.0653354979201 0.0687855182006 0.0861681547684 0.0309807776978 -0.0976652880534 -0.100992215333 -0.139337667771 0.104468984522 -0.474773370149 0.143009904618 -0.154244630878 -0.0513014716243 -0.146009462058 0.12012407615 0.207616266888 -0.322085017872 0.386309790859 0.151512119935 0.0343497918542 -0.101115644916 -0.100612629661 0.0273518570004 -0.120484932257 -0.11850085787 0.016823829557 -0.145648754751 0.157083129129 0.281368347517 0.614976585009 -0.398713723134 -0.0138024054049 -0.367201399185 -0.449374015117 0.130984960147 -0.150897467583
22 0.250555082176 0.104740882307 0.090050898406 -0.0996124338321 0.203286446973 -0.0509730237502 -0.153501861866 -0.0793960407925 -0.0818284256732 0.47045961248 -0.00155717870776 -0.0867892406915 -0.165063062474 -0.259605102445 0.0573814793935 -0.267336679773 0.228956460521 0.0118158342744 0.150765805576 0.0087520081479 -0.0112355334258 0.063191801439 0.107309965595 0.181878206014 -0.0986970578131 0.469075433494 -0.0363922488003 0.0706675569758 -0.0890973185122 -0.154205623957 -0.057759285348 0.249181632843 -0.117518877503 -0.0466075302254 0.0498157624283 0.0798821898096 -0.103737318907 -0.0753837089837 -0.0200642144375 -0.185150664991 0.309794997096 0.123372926748 0.192713647688 -0.0753026143657 -0.115282001236 -0.0554180161284 -0.114968038653 -0.0872616565398 -0.450508385245 -0.221498904568 -0.453790816644 0.530737506791 0.20497897639 0.447798047204 0.155577906905 -0.247453952662 -0.0586934510693 -0.170679256194 -0.343747687114 0.265990974527 -0.16036871193 -0.101812502725 0.0218786751068 -0.318225587834 0.124733030859 -0.0149688873476 -0.0802576105339 -0.0972870557429 0.0390059987875 -0.0524272747764 0.418196570895 -0.00108381359682 0.104919111133 -0.332086814327 0.0783388706701 -0.226486512612 0.269244765515 0.0883024470716 -0.247968937491 -0.0573915489718 0.0174568703107 -0.0463373218455 0.0307563830248 -0.133747413602 0.0677245506954 -0.030557358193 -0.0259687229229 -0.147578993594 0.563342207748 0.21030672006 -0.0627200269912 0.196807189961 0.12680841602 0.0385693965554 0.0120991280472 0.0468855889854 -0.0822258184892 -0.10793876966 -0.159594161615 -0.172445971379 0.122967583158 -0.544539613195 0.132176649956 -0.102952719041 -0.0615762106291 -0.174816049639 0.115701172742 0.321031248757 -0.361304102717 0.313049881467 0.119237870906 0.0746577156816 -0.122383900579 -0.130722393598 0.113513987729 -0.089403015834 -0.10416244879 -0.0575750152473 -0.0645286237996 0.117454972639 0.323693811494 0.646784338044 -0.431839524644 -0.044013685793 -0.425247979559 -0.487648412512 0.147044009086 -0.120795110647
23 0.250121464671 0.104444472241 0.0896621031176 -0.0994388349507 0.20386164197 -0.0510587114365 -0.153128427724 -0.0795490520194 -0.080975752243 0.470920527784 -0.000788948719275 -0.086747140358 -0.165655100541 -0.260208338682 0.0564372648921 -0.267370028472 0.22863294181 0.0118967061307 0.149505828028 0.00831481801955 -0.010927668809 0.0637997455637 0.107974801809 0.18100574244 -0.0996781582128 0.468248160623 -0.0372301675984 0.0706384499801 -0.0885891348481 -0.154630921708 -0.0573097293281 0.248562153875 -0.118204722935 -0.0468784120158 0.0503179680244 0.0795025179905 -0.103510360986 -0.0750053697793 -0.0199328314444 -0.186347069663 0.308949624438 0.122986250947 0.191971328305 -0.075262372323 -0.114987600852 -0.0554619503553 -0.114437726967 -0.0874376007803 -0.451276828119 -0.221781489556 -0.453973168449 0.530737198244 0.205060838197 0.447547915961 0.155187423961 -0.247411081355 -0.05928403181 -0.171095663955 -0.34354628307 0.265280195046 -0.16063846338 -0.101259712074 0.0208363659702 -0.31866076982 0.124386784016 -0.0147975063324 -0.0808681748785 -0.0972493172019 0.0395544809872 -0.052748750219 0.418713668209 -0.00152967715443 0.104960898751 -0.331773526775 0.0784661554799 -0.226186466976 0.269240345886 0.0872243952329 -0.248802382601 -0.057944913157 0.0173121229025 -0.0466035717987 0.0310201773343 -0.133648465132 0.0681195580497 -0.029782307795 -0.0256326549703 -0.145885207454 0.564232297479 0.210335001333 -0.0638068901599 0.196063717398 0.126374234452 0.0390621155854 0.010909447275 0.0476719679186 -0.0825323526984 -0.108398106088 -0.159602691687 -0.172720908973 0.124068635689 -0.544128062906 0.131582046706 -0.10268283664 -0.061448077591 -0.173405581356 0.116140940772 0.3213569112 -0.362366980918 0.313812033291 0.11876779595 0.0754021767989 -0.122335226907 -0.131062994755 0.113053100227 -0.088012945404 -0.103197456575 -0.0583965582561 -0.0643450223011 0.117142385225 0.323904525814 0.646620180802 -0.43092635696 -0.044110924952 -0.425578639102 -0.488544088971 0.146912841191 -0.120944073149
28 0.230816419981 0.148425198438 0.0984210476786 -0.0856275474045 0.131237032269 -0.00179040882325 -0.081677702458 -0.0566784192198 0.0297626018387 0.462445750551 -0.0327619587798 0.0327103731184 -0.152431692377 -0.153056418142 0.000521233449764 -0.384764399321 0.0714333554289 0.0245929754429 0.117424258232 -0.0602410472057 0.0812228114381 0.108808773717 0.0496638692799 0.190421801034 -0.0588232674535 0.535643858121 0.0307122919671 0.0453649040035 -0.0506178400472 -0.152271218371 -0.0373339985506 0.29345471608 -0.0583762041557 -0.0106179008408 0.0234104331584 0.1071285551 -0.024983998383 -0.0806119275358 0.00910490634306 -0.201316775451 0.336636365095 0.171578206438 0.268346556907 -0.120368334625 -0.0663635883971 -0.0225427861461 0.0136796402383 0.0218142546216 -0.463419945675 -0.274857484779 -0.352586616393 0.546482769663 0.298759574295 0.407619473245 0.221956880475 -0.290050005021 0.130307451727 -0.213713488627 -0.303786679639 0.26891204322 -0.132972962345 -0.00904079057129 0.0213741389202 -0.280097807692 -0.0259330781242 -0.0475596403781 0.0688907499289 -0.115387588712 0.0268915473837 -0.127180083817 0.362401315408 -0.0372288799971 0.104592149714 -0.299067451637 0.179991003592 -0.272184943847 0.25790047796 0.0250199642994 -0.46338210597 0.0382981581045 0.0802431796262 -0.0766696322974 0.0984043784346 -0.0835268204207 0.122852573727 0.0442335790278 -0.0864585692917 -0.132748381563 0.495123846749 0.270591093657 -0.0762308733989 0.235015172747 0.0293291031805 0.0513316060464 0.0868773402583 0.0946884605299 -0.044987355941 -0.157922835382 -0.0974346554873 -0.212498658114 0.0929859720153 -0.495450044945 0.0460007541482 -0.142595823809 -0.0466222644233 -0.195075553136 0.101555637858 0.159147651944 -0.370261102394 0.31359689752 0.113105231114 0.0889851838472 -0.0803892732298 -0.162132058346 0.070111150786 -0.114544523791 -0.148868465839 0.128665549576 -0.098240806841 0.104125412567 0.343808750256 0.559316211591 -0.40427224776 0.0355751172489 -0.333104627761 -0.444274149632 0.155773738494 -0.0862086400418
29 0.250132042118 0.104438297465 0.0896677513675 -0.0994482373477 0.203855437832 -0.0510531195371 -0.153128036083 -0.0795508685686 -0.0809745975033 0.470915809553 -0.000790808754543 -0.0867451711201 -0.165648944303 -0.260210838056 0.0564376954515 -0.267371926799 0.228634211401 0.0119069902673 0.149502869263 0.0083179587004 -0.0109333959615 0.0638034237231 0.107977857008 0.181004432463 -0.0996782547873 0.46824353533 -0.037233373473 0.0706399039709 -0.0885785486913 -0.154635972866 -0.0573143521603 0.248556993979 -0.11821955455 -0.0468958194329 0.0503090053462 0.0795006716606 -0.103518515041 -0.0750074109939 -0.0199366333147 -0.186342270537 0.30895550307 0.122989548511 0.191980000694 -0.0752657905435 -0.114985782962 -0.0554634698558 -0.114435137325 -0.087435616407 -0.451275458384 -0.221782633183 -0.453971558629 0.530736784945 0.205060965972 0.447559709901 0.15519440109 -0.247401522341 -0.0592759402595 -0.171083063565 -0.343547561356 0.265261140801 -0.160638065172 -0.101250838244 0.0208445741306 -0.318659596726 0.124402391435 -0.0147921392285 -0.080871042712 -0.0972475486575 0.0395486278203 -0.0527576807463 0.418704008575 -0.00152546296761 0.104968174391 -0.33177078193 0.0784682689272 -0.22619081391 0.269244491602 0.0872234218782 -0.24879844302 -0.0579473311302 0.0173214810225 -0.0465863499426 0.0310279201056 -0.133647911941 0.0681149252664 -0.0297777782589 -0.0256342680598 -0.145873889963 0.564243580323 0.210344201835 -0.0638068147187 0.196061389632 0.126373044542 0.0390582873617 0.010906478078 0.04767916221 -0.0825392557721 -0.108405946802 -0.159604591097 -0.172717300692 0.124071556255 -0.544137740033 0.131582835912 -0.102688097376 -0.0614438106342 -0.173403953748 0.116147478125 0.321355645581 -0.362364447102 0.313816743528 0.118780894616 0.0753980959603 -0.122342733703 -0.131065827163 0.113051118686 -0.0880037246448 -0.103198734244 -0.0583996289743 -0.0643574193062 0.117148853045 0.323905734075 0.646615319191 -0.430922813886 -0.0441146449122 -0.425582650972 -0.488547978305 0.146918314455 -0.120945701803
1 0.267672006431 0.039703631041 0.0280674869118 -0.0380093873869 0.235080135086 -0.0242604550783 -0.113979818362 -0.0955906110839 0.0387662493778 0.427643168563 -0.0160225225827 -0.0338135364687 -0.115382559507 -0.172691895767 -0.0173036478103 -0.340184920356 0.190661069251 -0.0728955843179 0.137327294334 -0.022792886848 0.0388523061854 0.148509825854 0.0622204129557 0.17670053648 -0.141216778135 0.48241749377 -0.013726265209 -0.00549569912618 -0.033384774918 -0.152760812788 -0.124827516769 0.232672539721 -0.0840154726425 0.0867323061263 0.0218453417934 0.157722540014 0.0511579563667 -0.0909653499549 0.0380296319904 -0.155403580546 0.32949330817 0.214999883377 0.211104732549 -0.111780550276 -0.086892685393 -0.0698989578459 -0.168656954824 -0.103154278763 -0.510629869605 -0.254014946832 -0.349287602551 0.528051610094 0.275253369786 0.413673033151 0.2103042117 -0.287874317166 0.0654458494462 -0.219268960542 -0.298960133711 0.27645338963 -0.0784203140935 -0.107241223673 -0.0194186933105 -0.38174811858 0.0201523928893 0.0103004257568 -0.0731214520243 -0.0323191655078 0.049887254262 -0.126010642855 0.397299173298 -0.0237637122792 0.186370599605 -0.308343034381 0.0873680016607 -0.342500768528 0.423235482984 0.03875251058 -0.251968542 -0.0342379120601 0.0753871680089 -0.0390657957151 0.0668336587591 -0.142248543409 0.0612169174557 0.00121660445602 -0.120573502459 -0.0928037989365 0.515961897416 0.229912023083 -0.0221448796984 0.155705876105 0.121081150237 0.0653354979201 0.0687855182006 0.0861681547684 0.0309807776978 -0.0976652880534 -0.100992215333 -0.139337667771 0.104468984522 -0.474773370149 0.143009904618 -0.154244630878 -0.0513014716243 -0.146009462058 0.12012407615 0.207616266888 -0.322085017872 0.386309790859 0.151512119935 0.0343497918542 -0.101115644916 -0.100612629661 0.0273518570004 -0.120484932257 -0.11850085787 0.016823829557 -0.145648754751 0.157083129129 0.281368347517 0.614976585009 -0.398713723134 -0.0138024054049 -0.367201399185 -0.449374015117 0.130984960147 -0.150897467583
0 0.267681922594 0.0397055885651 0.0280685771707 -0.0380079981117 0.235079970999 -0.0242655001895 -0.113995706451 -0.0955952757062 0.0387683011733 0.427633633833 -0.0160333677579 -0.0338199547688 -0.115392482183 -0.17269359527 -0.017309882427 -0.340179415041 0.190653385977 -0.0728996413839 0.137333546729 -0.0227851744652 0.0388545825785 0.148515048886 0.0622200187634 0.176691937898 -0.141218922185 0.482411663626 -0.0137315013915 -0.00549531775839 -0.0333795005571 -0.152769484322 -0.124846080934 0.232678957548 -0.0840227212819 0.0867216978607 0.0218359000231 0.157706944152 0.0511494642715 -0.0909534675138 0.0380230278617 -0.155411175209 0.329498032035 0.214999755141 0.2111106878 -0.111777152224 -0.0868925677932 -0.0699051414203 -0.168669000068 -0.103150496245 -0.510614734674 -0.254011331724 -0.349289531764 0.528051115304 0.275255425626 0.413673870718 0.210307300989 -0.287880834304 0.0654553826915 -0.219273835527 -0.298955729019 0.276454690965 -0.07841716354 -0.10724110364 -0.0194137688025 -0.381746319312 0.0201499791387 0.0103046464267 -0.0731264362656 -0.0323210800778 0.0498937453635 -0.12600503922 0.397303458365 -0.023759528767 0.186369700803 -0.308344326589 0.0873632137752 -0.342504576502 0.423235174859 0.0387569561023 -0.251970811872 -0.0342425428123 0.0753896787269 -0.0390630091082 0.0668364669502 -0.142245986296 0.0612265557615 0.00121491855463 -0.120581922635 -0.0928072165661 0.515960385303 0.229915537633 -0.0221452011233 0.155715419814 0.121086812922 0.0653280457688 0.0687841458087 0.086167328181 0.0309829141936 -0.0976634260289 -0.100987293814 -0.139342434852 0.104469100304 -0.474783443823 0.143010279816 -0.154235287168 -0.0512949671921 -0.146024362974 0.120120645718 0.207620604425 -0.322092509854 0.386322967751 0.151518343454 0.0343551776521 -0.101116657341 -0.100607820421 0.0273515424798 -0.120496175307 -0.118498950291 0.0168241624162 -0.145645125901 0.157069875723 0.281369436886 0.614975093378 -0.398712800156 -0.013806732241 -0.367203875227 -0.449385984859 0.130982217725 -0.150899477682
3 0.267086811137 0.0394238212367 0.0289518961381 -0.0384157974087 0.233908614887 -0.023336435523 -0.113878935539 -0.0950576666996 0.0388766720421 0.428648059967 -0.0158377280029 -0.0337044928666 -0.116056165984 -0.172705500413 -0.0181473900167 -0.340115793359 0.190868887498 -0.0739472224193 0.136822957014 -0.0240164262884 0.0376789726365 0.147536222293 0.0616859581733 0.17650060887 -0.141093159342 0.481681718359 -0.0141379831945 -0.00445258212171 -0.0319744291752 -0.152709765929 -0.124604105371 0.233208476668 -0.0840879417268 0.0877510593145 0.0222462971399 0.15749567109 0.0512961403421 -0.0903753045556 0.0397700609073 -0.155472124838 0.329731580094 0.215352752424 0.211783510933 -0.111584695747 -0.0870862571585 -0.0694350141823 -0.168473857909 -0.10247466934 -0.511363170887 -0.253726465524 -0.349808592685 0.527716010715 0.275209739401 0.414317410076 0.211098327869 -0.28860556093 0.0641550901915 -0.219226211099 -0.299469206981 0.276201637091 -0.0786305947149 -0.10700698453 -0.0192275599437 -0.382185295182 0.0179088851598 0.0102515521007 -0.0733804525161 -0.032864699288 0.0492053433065 -0.12572130084 0.397129458347 -0.0235926047041 0.186285752854 -0.308864069443 0.0866502620039 -0.342618361512 0.422888910773 0.0385462986856 -0.253506494485 -0.0332998661372 0.0742972028428 -0.0391725251185 0.0678948718698 -0.142206206466 0.0608590430652 0.00106818363081 -0.121061022753 -0.0927971797123 0.515325616939 0.229648914668 -0.0220866348902 0.155838381058 0.121036975921 0.0653935349421 0.0692262812049 0.0871718813556 0.029663917098 -0.0979543481399 -0.100591996809 -0.13997634991 0.104163700042 -0.475607293168 0.142578610742 -0.154169018955 -0.0508203992212 -0.145471537339 0.12062367394 0.207626993996 -0.32187530456 0.385963055767 0.152701345252 0.0341380944255 -0.100856672099 -0.100681297475 0.0276836002757 -0.119852755902 -0.118524169788 0.0165225120107 -0.146464674833 0.156588739249 0.28113057363 0.615388456929 -0.398792477529 -0.0145792135091 -0.367245196819 -0.449510005062 0.131804262309 -0.151995676869
2 0.267086811137 0.0394238212367 0.0289518961381 -0.0384157974087 0.233908614887 -0.023336435523 -0.113878935539 -0.0950576666996 0.0388766720421 0.428648059967 -0.0158377280029 -0.0337044928666 -0.116056165984 -0.172705500413 -0.0181473900167 -0.340115793359 0.190868887498 -0.0739472224193 0.136822957014 -0.0240164262884 0.0376789726365 0.147536222293 0.0616859581733 0.17650060887 -0.141093159342 0.481681718359 -0.0141379831945 -0.00445258212171 -0.0319744291752 -0.152709765929 -0.124604105371 0.233208476668 -0.0840879417268 0.0877510593145 0.0222462971399 0.15749567109 0.0512961403421 -0.0903753045556 0.0397700609073 -0.155472124838 0.329731580094 0.215352752424 0.211783510933 -0.111584695747 -0.0870862571585 -0.0694350141823 -0.168473857909 -0.10247466934 -0.511363170887 -0.253726465524 -0.349808592685 0.527716010715 0.275209739401 0.414317410076 0.211098327869 -0.28860556093 0.0641550901915 -0.219226211099 -0.299469206981 0.276201637091 -0.0786305947149 -0.10700698453 -0.0192275599437 -0.382185295182 0.0179088851598 0.0102515521007 -0.0733804525161 -0.032864699288 0.0492053433065 -0.12572130084 0.397129458347 -0.0235926047041 0.186285752854 -0.308864069443 0.0866502620039 -0.342618361512 0.422888910773 0.0385462986856 -0.253506494485 -0.0332998661372 0.0742972028428 -0.0391725251185 0.0678948718698 -0.142206206466 0.0608590430652 0.00106818363081 -0.121061022753 -0.0927971797123 0.515325616939 0.229648914668 -0.0220866348902 0.155838381058 0.121036975921 0.0653935349421 0.0692262812049 0.0871718813556 0.029663917098 -0.0979543481399 -0.100591996809 -0.13997634991 0.104163700042 -0.475607293168 0.142578610742 -0.154169018955 -0.0508203992212 -0.145471537339 0.12062367394 0.207626993996 -0.32187530456 0.385963055767 0.152701345252 0.0341380944255 -0.100856672099 -0.100681297475 0.0276836002757 -0.119852755902 -0.118524169788 0.0165225120107 -0.146464674833 0.156588739249 0.28113057363 0.615388456929 -0.398792477529 -0.0145792135091 -0.367245196819 -0.449510005062 0.131804262309 -0.151995676869
5 0.194058027052 0.160333824601 0.0240610067207 -0.00109823493953 0.142692430471 -0.0498141567586 -0.115317845389 -0.0435460695907 0.045711079785 0.495278769379 0.0139159227107 -0.118516181981 -0.101387706448 -0.169320066591 0.0353995309643 -0.367728421342 0.211551973596 -0.0526658856058 0.18021365942 -0.0803747541505 0.0632111102501 0.0429855237539 0.0697079579164 0.177752002704 -0.183869061568 0.545023407639 -0.050918747407 -0.0240642951918 0.00714967763843 -0.108464714336 -0.0664540455206 0.237451242642 -0.116041976842 0.0807799767605 0.0625455227662 0.199389334147 -0.134808447148 -0.112652565161 -0.00612855154619 -0.140171246474 0.309105384937 0.151094536527 0.216919449055 -0.128646572754 0.0394987198274 -0.00147987361198 -0.0604432565177 -0.0502179889265 -0.467441158204 -0.279054098222 -0.392883225134 0.443491572226 0.299096440859 0.400589723129 0.226059520982 -0.187053508315 0.0846371363517 -0.255945669205 -0.271705268875 0.191828356171 -0.125470575959 -0.106363577365 0.065926707262 -0.334096032837 0.0818762217475 -0.0277036286572 0.00433220107986 -0.0754110412901 0.011557655221 -0.164173544871 0.389085901369 -0.0359023400115 0.1885469415 -0.322656662207 0.229824188059 -0.237341928254 0.342335589431 0.0078179359317 -0.333990592016 -0.016468891915 0.0024117302021 0.0354323639039 0.123878747134 -0.147922097514 0.164162207541 0.0335677758735 -0.042005908026 -0.102050432444 0.589380260975 0.348134950157 -0.0937926468579 0.265735336004 0.0440846931016 0.12333874619 0.0197728550062 0.0630478971238 -0.0123012707698 -0.136566336084 -0.218454641533 -0.0307167010054 0.0788103057527 -0.448518447421 0.0622364223431 -0.103509044182 -0.0457722819375 -0.245236784742 0.0978038247973 0.13008941797 -0.363930116313 0.302605047289 0.116647440095 0.00593197930274 -0.09204966831 -0.151844315128 0.119782186024 -0.151878696982 -0.119020244113 0.0998459928885 -0.152024080431 0.0457205011613 0.328201019578 0.611795476669 -0.516444452268 -0.0201124688427 -0.350248156768 -0.449043844255 0.153284519256 -0.0829113528635
4 0.194058027052 0.160333824601 0.0240610067207 -0.00109823493953 0.142692430471 -0.0498141567586 -0.115317845389 -0.0435460695907 0.045711079785 0.495278769379 0.0139159227107 -0.118516181981 -0.101387706448 -0.169320066591 0.0353995309643 -0.367728421342 0.211551973596 -0.0526658856058 0.18021365942 -0.0803747541505 0.0632111102501 0.0429855237539 0.0697079579164 0.177752002704 -0.183869061568 0.545023407639 -0.050918747407 -0.0240642951918 0.00714967763843 -0.108464714336 -0.0664540455206 0.237451242642 -0.116041976842 0.0807799767605 0.0625455227662 0.199389334147 -0.134808447148 -0.112652565161 -0.00612855154619 -0.140171246474 0.309105384937 0.151094536527 0.216919449055 -0.128646572754 0.0394987198274 -0.00147987361198 -0.0604432565177 -0.0502179889265 -0.467441158204 -0.279054098222 -0.392883225134 0.443491572226 0.299096440859 0.400589723129 0.226059520982 -0.187053508315 0.0846371363517 -0.255945669205 -0.271705268875 0.191828356171 -0.125470575959 -0.106363577365 0.065926707262 -0.334096032837 0.0818762217475 -0.0277036286572 0.00433220107986 -0.0754110412901 0.011557655221 -0.164173544871 0.389085901369 -0.0359023400115 0.1885469415 -0.322656662207 0.229824188059 -0.237341928254 0.342335589431 0.0078179359317 -0.333990592016 -0.016468891915 0.0024117302021 0.0354323639039 0.123878747134 -0.147922097514 0.164162207541 0.0335677758735 -0.042005908026 -0.102050432444 0.589380260975 0.348134950157 -0.0937926468579 0.265735336004 0.0440846931016 0.12333874619 0.0197728550062 0.0630478971238 -0.0123012707698 -0.136566336084 -0.218454641533 -0.0307167010054 0.0788103057527 -0.448518447421 0.0622364223431 -0.103509044182 -0.0457722819375 -0.245236784742 0.0978038247973 0.13008941797 -0.363930116313 0.302605047289 0.116647440095 0.00593197930274 -0.09204966831 -0.151844315128 0.119782186024 -0.151878696982 -0.119020244113 0.0998459928885 -0.152024080431 0.0457205011613 0.328201019578 0.611795476669 -0.516444452268 -0.0201124688427 -0.350248156768 -0.449043844255 0.153284519256 -0.0829113528635
7 0.267086811137 0.0394238212367 0.0289518961381 -0.0384157974087 0.233908614887 -0.023336435523 -0.113878935539 -0.0950576666996 0.0388766720421 0.428648059967 -0.0158377280029 -0.0337044928666 -0.116056165984 -0.172705500413 -0.0181473900167 -0.340115793359 0.190868887498 -0.0739472224193 0.136822957014 -0.0240164262884 0.0376789726365 0.147536222293 0.0616859581733 0.17650060887 -0.141093159342 0.481681718359 -0.0141379831945 -0.00445258212171 -0.0319744291752 -0.152709765929 -0.124604105371 0.233208476668 -0.0840879417268 0.0877510593145 0.0222462971399 0.15749567109 0.0512961403421 -0.0903753045556 0.0397700609073 -0.155472124838 0.329731580094 0.215352752424 0.211783510933 -0.111584695747 -0.0870862571585 -0.0694350141823 -0.168473857909 -0.10247466934 -0.511363170887 -0.253726465524 -0.349808592685 0.527716010715 0.275209739401 0.414317410076 0.211098327869 -0.28860556093 0.0641550901915 -0.219226211099 -0.299469206981 0.276201637091 -0.0786305947149 -0.10700698453 -0.0192275599437 -0.382185295182 0.0179088851598 0.0102515521007 -0.0733804525161 -0.032864699288 0.0492053433065 -0.12572130084 0.397129458347 -0.0235926047041 0.186285752854 -0.308864069443 0.0866502620039 -0.342618361512 0.422888910773 0.0385462986856 -0.253506494485 -0.0332998661372 0.0742972028428 -0.0391725251185 0.0678948718698 -0.142206206466 0.0608590430652 0.00106818363081 -0.121061022753 -0.0927971797123 0.515325616939 0.229648914668 -0.0220866348902 0.155838381058 0.121036975921 0.0653935349421 0.0692262812049 0.0871718813556 0.029663917098 -0.0979543481399 -0.100591996809 -0.13997634991 0.104163700042 -0.475607293168 0.142578610742 -0.154169018955 -0.0508203992212 -0.145471537339 0.12062367394 0.207626993996 -0.32187530456 0.385963055767 0.152701345252 0.0341380944255 -0.100856672099 -0.100681297475 0.0276836002757 -0.119852755902 -0.118524169788 0.0165225120107 -0.146464674833 0.156588739249 0.28113057363 0.615388456929 -0.398792477529 -0.0145792135091 -0.367245196819 -0.449510005062 0.131804262309 -0.151995676869
6 0.194058027052 0.160333824601 0.0240610067207 -0.00109823493953 0.142692430471 -0.0498141567586 -0.115317845389 -0.0435460695907 0.045711079785 0.495278769379 0.0139159227107 -0.118516181981 -0.101387706448 -0.169320066591 0.0353995309643 -0.367728421342 0.211551973596 -0.0526658856058 0.18021365942 -0.0803747541505 0.0632111102501 0.0429855237539 0.0697079579164 0.177752002704 -0.183869061568 0.545023407639 -0.050918747407 -0.0240642951918 0.00714967763843 -0.108464714336 -0.0664540455206 0.237451242642 -0.116041976842 0.0807799767605 0.0625455227662 0.199389334147 -0.134808447148 -0.112652565161 -0.00612855154619 -0.140171246474 0.309105384937 0.151094536527 0.216919449055 -0.128646572754 0.0394987198274 -0.00147987361198 -0.0604432565177 -0.0502179889265 -0.467441158204 -0.279054098222 -0.392883225134 0.443491572226 0.299096440859 0.400589723129 0.226059520982 -0.187053508315 0.0846371363517 -0.255945669205 -0.271705268875 0.191828356171 -0.125470575959 -0.106363577365 0.065926707262 -0.334096032837 0.0818762217475 -0.0277036286572 0.00433220107986 -0.0754110412901 0.011557655221 -0.164173544871 0.389085901369 -0.0359023400115 0.1885469415 -0.322656662207 0.229824188059 -0.237341928254 0.342335589431 0.0078179359317 -0.333990592016 -0.016468891915 0.0024117302021 0.0354323639039 0.123878747134 -0.147922097514 0.164162207541 0.0335677758735 -0.042005908026 -0.102050432444 0.589380260975 0.348134950157 -0.0937926468579 0.265735336004 0.0440846931016 0.12333874619 0.0197728550062 0.0630478971238 -0.0123012707698 -0.136566336084 -0.218454641533 -0.0307167010054 0.0788103057527 -0.448518447421 0.0622364223431 -0.103509044182 -0.0457722819375 -0.245236784742 0.0978038247973 0.13008941797 -0.363930116313 0.302605047289 0.116647440095 0.00593197930274 -0.09204966831 -0.151844315128 0.119782186024 -0.151878696982 -0.119020244113 0.0998459928885 -0.152024080431 0.0457205011613 0.328201019578 0.611795476669 -0.516444452268 -0.0201124688427 -0.350248156768 -0.449043844255 0.153284519256 -0.0829113528635
9 0.267086811137 0.0394238212367 0.0289518961381 -0.0384157974087 0.233908614887 -0.023336435523 -0.113878935539 -0.0950576666996 0.0388766720421 0.428648059967 -0.0158377280029 -0.0337044928666 -0.116056165984 -0.172705500413 -0.0181473900167 -0.340115793359 0.190868887498 -0.0739472224193 0.136822957014 -0.0240164262884 0.0376789726365 0.147536222293 0.0616859581733 0.17650060887 -0.141093159342 0.481681718359 -0.0141379831945 -0.00445258212171 -0.0319744291752 -0.152709765929 -0.124604105371 0.233208476668 -0.0840879417268 0.0877510593145 0.0222462971399 0.15749567109 0.0512961403421 -0.0903753045556 0.0397700609073 -0.155472124838 0.329731580094 0.215352752424 0.211783510933 -0.111584695747 -0.0870862571585 -0.0694350141823 -0.168473857909 -0.10247466934 -0.511363170887 -0.253726465524 -0.349808592685 0.527716010715 0.275209739401 0.414317410076 0.211098327869 -0.28860556093 0.0641550901915 -0.219226211099 -0.299469206981 0.276201637091 -0.0786305947149 -0.10700698453 -0.0192275599437 -0.382185295182 0.0179088851598 0.0102515521007 -0.0733804525161 -0.032864699288 0.0492053433065 -0.12572130084 0.397129458347 -0.0235926047041 0.186285752854 -0.308864069443 0.0866502620039 -0.342618361512 0.422888910773 0.0385462986856 -0.253506494485 -0.0332998661372 0.0742972028428 -0.0391725251185 0.0678948718698 -0.142206206466 0.0608590430652 0.00106818363081 -0.121061022753 -0.0927971797123 0.515325616939 0.229648914668 -0.0220866348902 0.155838381058 0.121036975921 0.0653935349421 0.0692262812049 0.0871718813556 0.029663917098 -0.0979543481399 -0.100591996809 -0.13997634991 0.104163700042 -0.475607293168 0.142578610742 -0.154169018955 -0.0508203992212 -0.145471537339 0.12062367394 0.207626993996 -0.32187530456 0.385963055767 0.152701345252 0.0341380944255 -0.100856672099 -0.100681297475 0.0276836002757 -0.119852755902 -0.118524169788 0.0165225120107 -0.146464674833 0.156588739249 0.28113057363 0.615388456929 -0.398792477529 -0.0145792135091 -0.367245196819 -0.449510005062 0.131804262309 -0.151995676869
8 0.250546564879 0.104740232739 0.0900440219531 -0.0996088948029 0.203279557155 -0.0509757680069 -0.153501704639 -0.0794054329213 -0.0818311682126 0.47045333839 -0.00155304099653 -0.0867808141516 -0.165063599724 -0.259603619558 0.0573848872537 -0.267338828308 0.228951585288 0.0118156599878 0.150766679991 0.00875294985322 -0.0112406214592 0.0631885297466 0.107310545396 0.181865508745 -0.0986960217445 0.469067867723 -0.0363960677296 0.0706604486259 -0.089089931037 -0.154197888112 -0.0577619987284 0.24918529888 -0.117517617216 -0.0466110488836 0.0498140794653 0.0798964401248 -0.103737845705 -0.0753744003655 -0.0200660428996 -0.185156323527 0.30980330856 0.123381753778 0.192708223155 -0.0753006472534 -0.115289407276 -0.055420158902 -0.114971927379 -0.087263667934 -0.450518962453 -0.221502353944 -0.453794775587 0.530739754891 0.204969256625 0.447805024218 0.15557395547 -0.247435483935 -0.0586795029966 -0.170691482873 -0.343753664085 0.266002914077 -0.160371657512 -0.101805261314 0.021879114031 -0.318221195175 0.124730908798 -0.0149810083901 -0.0802592086481 -0.0972802378077 0.0390005235693 -0.0524204842817 0.418197943686 -0.00108680974336 0.104920963896 -0.332092970559 0.0783389222106 -0.226478271429 0.269229071722 0.0883055279214 -0.247968326672 -0.0573929909861 0.0174657988095 -0.0463225286044 0.030756255486 -0.133744938802 0.0677142504426 -0.0305638978199 -0.025972425071 -0.147577727661 0.563340948809 0.210318430556 -0.062713199832 0.196809571471 0.126804375368 0.0385752000898 0.0120883564217 0.0468887794253 -0.0822188166443 -0.107929664458 -0.159594354126 -0.172435789122 0.122963677654 -0.544547663208 0.132168530008 -0.102941133004 -0.0615761551561 -0.174816966324 0.115706980613 0.321025990775 -0.361301305193 0.313053463015 0.119240649164 0.0746638425243 -0.122383296461 -0.130729188877 0.113517785806 -0.0893951061066 -0.104172392177 -0.0575710786686 -0.0645291311306 0.117454644737 0.323699864569 0.646790012496 -0.431841289854 -0.0440149632108 -0.425249753079 -0.487654224762 0.147046504723 -0.120787378725
11 0.267681922594 0.0397055885651 0.0280685771707 -0.0380079981117 0.235079970999 -0.0242655001895 -0.113995706451 -0.0955952757062 0.0387683011733 0.427633633833 -0.0160333677579 -0.0338199547688 -0.115392482183 -0.17269359527 -0.017309882427 -0.340179415041 0.190653385977 -0.0728996413839 0.137333546729 -0.0227851744652 0.0388545825785 0.148515048886 0.0622200187634 0.176691937898 -0.141218922185 0.482411663626 -0.0137315013915 -0.00549531775839 -0.0333795005571 -0.152769484322 -0.124846080934 0.232678957548 -0.0840227212819 0.0867216978607 0.0218359000231 0.157706944152 0.0511494642715 -0.0909534675138 0.0380230278617 -0.155411175209 0.329498032035 0.214999755141 0.2111106878 -0.111777152224 -0.0868925677932 -0.0699051414203 -0.168669000068 -0.103150496245 -0.510614734674 -0.254011331724 -0.349289531764 0.528051115304 0.275255425626 0.413673870718 0.210307300989 -0.287880834304 0.0654553826915 -0.219273835527 -0.298955729019 0.276454690965 -0.07841716354 -0.10724110364 -0.0194137688025 -0.381746319312 0.0201499791387 0.0103046464267 -0.0731264362656 -0.0323210800778 0.0498937453635 -0.12600503922 0.397303458365 -0.023759528767 0.186369700803 -0.308344326589 0.0873632137752 -0.342504576502 0.423235174859 0.0387569561023 -0.251970811872 -0.0342425428123 0.0753896787269 -0.0390630091082 0.0668364669502 -0.142245986296 0.0612265557615 0.00121491855463 -0.120581922635 -0.0928072165661 0.515960385303 0.229915537633 -0.0221452011233 0.155715419814 0.121086812922 0.0653280457688 0.0687841458087 0.086167328181 0.0309829141936 -0.0976634260289 -0.100987293814 -0.139342434852 0.104469100304 -0.474783443823 0.143010279816 -0.154235287168 -0.0512949671921 -0.146024362974 0.120120645718 0.207620604425 -0.322092509854 0.386322967751 0.151518343454 0.0343551776521 -0.101116657341 -0.100607820421 0.0273515424798 -0.120496175307 -0.118498950291 0.0168241624162 -0.145645125901 0.157069875723 0.281369436886 0.614975093378 -0.398712800156 -0.013806732241 -0.367203875227 -0.449385984859 0.130982217725 -0.150899477682
10 0.194058027052 0.160333824601 0.0240610067207 -0.00109823493953 0.142692430471 -0.0498141567586 -0.115317845389 -0.0435460695907 0.045711079785 0.495278769379 0.0139159227107 -0.118516181981 -0.101387706448 -0.169320066591 0.0353995309643 -0.367728421342 0.211551973596 -0.0526658856058 0.18021365942 -0.0803747541505 0.0632111102501 0.0429855237539 0.0697079579164 0.177752002704 -0.183869061568 0.545023407639 -0.050918747407 -0.0240642951918 0.00714967763843 -0.108464714336 -0.0664540455206 0.237451242642 -0.116041976842 0.0807799767605 0.0625455227662 0.199389334147 -0.134808447148 -0.112652565161 -0.00612855154619 -0.140171246474 0.309105384937 0.151094536527 0.216919449055 -0.128646572754 0.0394987198274 -0.00147987361198 -0.0604432565177 -0.0502179889265 -0.467441158204 -0.279054098222 -0.392883225134 0.443491572226 0.299096440859 0.400589723129 0.226059520982 -0.187053508315 0.0846371363517 -0.255945669205 -0.271705268875 0.191828356171 -0.125470575959 -0.106363577365 0.065926707262 -0.334096032837 0.0818762217475 -0.0277036286572 0.00433220107986 -0.0754110412901 0.011557655221 -0.164173544871 0.389085901369 -0.0359023400115 0.1885469415 -0.322656662207 0.229824188059 -0.237341928254 0.342335589431 0.0078179359317 -0.333990592016 -0.016468891915 0.0024117302021 0.0354323639039 0.123878747134 -0.147922097514 0.164162207541 0.0335677758735 -0.042005908026 -0.102050432444 0.589380260975 0.348134950157 -0.0937926468579 0.265735336004 0.0440846931016 0.12333874619 0.0197728550062 0.0630478971238 -0.0123012707698 -0.136566336084 -0.218454641533 -0.0307167010054 0.0788103057527 -0.448518447421 0.0622364223431 -0.103509044182 -0.0457722819375 -0.245236784742 0.0978038247973 0.13008941797 -0.363930116313 0.302605047289 0.116647440095 0.00593197930274 -0.09204966831 -0.151844315128 0.119782186024 -0.151878696982 -0.119020244113 0.0998459928885 -0.152024080431 0.0457205011613 0.328201019578 0.611795476669 -0.516444452268 -0.0201124688427 -0.350248156768 -0.449043844255 0.153284519256 -0.0829113528635
13 0.267086811137 0.0394238212367 0.0289518961381 -0.0384157974087 0.233908614887 -0.023336435523 -0.113878935539 -0.0950576666996 0.0388766720421 0.428648059967 -0.0158377280029 -0.0337044928666 -0.116056165984 -0.172705500413 -0.0181473900167 -0.340115793359 0.190868887498 -0.0739472224193 0.136822957014 -0.0240164262884 0.0376789726365 0.147536222293 0.0616859581733 0.17650060887 -0.141093159342 0.481681718359 -0.0141379831945 -0.00445258212171 -0.0319744291752 -0.152709765929 -0.124604105371 0.233208476668 -0.0840879417268 0.0877510593145 0.0222462971399 0.15749567109 0.0512961403421 -0.0903753045556 0.0397700609073 -0.155472124838 0.329731580094 0.215352752424 0.211783510933 -0.111584695747 -0.0870862571585 -0.0694350141823 -0.168473857909 -0.10247466934 -0.511363170887 -0.253726465524 -0.349808592685 0.527716010715 0.275209739401 0.414317410076 0.211098327869 -0.28860556093 0.0641550901915 -0.219226211099 -0.299469206981 0.276201637091 -0.0786305947149 -0.10700698453 -0.0192275599437 -0.382185295182 0.0179088851598 0.0102515521007 -0.0733804525161 -0.032864699288 0.0492053433065 -0.12572130084 0.397129458347 -0.0235926047041 0.186285752854 -0.308864069443 0.0866502620039 -0.342618361512 0.422888910773 0.0385462986856 -0.253506494485 -0.0332998661372 0.0742972028428 -0.0391725251185 0.0678948718698 -0.142206206466 0.0608590430652 0.00106818363081 -0.121061022753 -0.0927971797123 0.515325616939 0.229648914668 -0.0220866348902 0.155838381058 0.121036975921 0.0653935349421 0.0692262812049 0.0871718813556 0.029663917098 -0.0979543481399 -0.100591996809 -0.13997634991 0.104163700042 -0.475607293168 0.142578610742 -0.154169018955 -0.0508203992212 -0.145471537339 0.12062367394 0.207626993996 -0.32187530456 0.385963055767 0.152701345252 0.0341380944255 -0.100856672099 -0.100681297475 0.0276836002757 -0.119852755902 -0.118524169788 0.0165225120107 -0.146464674833 0.156588739249 0.28113057363 0.615388456929 -0.398792477529 -0.0145792135091 -0.367245196819 -0.449510005062 0.131804262309 -0.151995676869
12 0.267681922594 0.0397055885651 0.0280685771707 -0.0380079981117 0.235079970999 -0.0242655001895 -0.113995706451 -0.0955952757062 0.0387683011733 0.427633633833 -0.0160333677579 -0.0338199547688 -0.115392482183 -0.17269359527 -0.017309882427 -0.340179415041 0.190653385977 -0.0728996413839 0.137333546729 -0.0227851744652 0.0388545825785 0.148515048886 0.0622200187634 0.176691937898 -0.141218922185 0.482411663626 -0.0137315013915 -0.00549531775839 -0.0333795005571 -0.152769484322 -0.124846080934 0.232678957548 -0.0840227212819 0.0867216978607 0.0218359000231 0.157706944152 0.0511494642715 -0.0909534675138 0.0380230278617 -0.155411175209 0.329498032035 0.214999755141 0.2111106878 -0.111777152224 -0.0868925677932 -0.0699051414203 -0.168669000068 -0.103150496245 -0.510614734674 -0.254011331724 -0.349289531764 0.528051115304 0.275255425626 0.413673870718 0.210307300989 -0.287880834304 0.0654553826915 -0.219273835527 -0.298955729019 0.276454690965 -0.07841716354 -0.10724110364 -0.0194137688025 -0.381746319312 0.0201499791387 0.0103046464267 -0.0731264362656 -0.0323210800778 0.0498937453635 -0.12600503922 0.397303458365 -0.023759528767 0.186369700803 -0.308344326589 0.0873632137752 -0.342504576502 0.423235174859 0.0387569561023 -0.251970811872 -0.0342425428123 0.0753896787269 -0.0390630091082 0.0668364669502 -0.142245986296 0.0612265557615 0.00121491855463 -0.120581922635 -0.0928072165661 0.515960385303 0.229915537633 -0.0221452011233 0.155715419814 0.121086812922 0.0653280457688 0.0687841458087 0.086167328181 0.0309829141936 -0.0976634260289 -0.100987293814 -0.139342434852 0.104469100304 -0.474783443823 0.143010279816 -0.154235287168 -0.0512949671921 -0.146024362974 0.120120645718 0.207620604425 -0.322092509854 0.386322967751 0.151518343454 0.0343551776521 -0.101116657341 -0.100607820421 0.0273515424798 -0.120496175307 -0.118498950291 0.0168241624162 -0.145645125901 0.157069875723 0.281369436886 0.614975093378 -0.398712800156 -0.013806732241 -0.367203875227 -0.449385984859 0.130982217725 -0.150899477682
15 0.250555082176 0.104740882307 0.090050898406 -0.0996124338321 0.203286446973 -0.0509730237502 -0.153501861866 -0.0793960407925 -0.0818284256732 0.47045961248 -0.00155717870776 -0.0867892406915 -0.165063062474 -0.259605102445 0.0573814793935 -0.267336679773 0.228956460521 0.0118158342744 0.150765805576 0.0087520081479 -0.0112355334258 0.063191801439 0.107309965595 0.181878206014 -0.0986970578131 0.469075433494 -0.0363922488003 0.0706675569758 -0.0890973185122 -0.154205623957 -0.057759285348 0.249181632843 -0.117518877503 -0.0466075302254 0.0498157624283 0.0798821898096 -0.103737318907 -0.0753837089837 -0.0200642144375 -0.185150664991 0.309794997096 0.123372926748 0.192713647688 -0.0753026143657 -0.115282001236 -0.0554180161284 -0.114968038653 -0.0872616565398 -0.450508385245 -0.221498904568 -0.453790816644 0.530737506791 0.20497897639 0.447798047204 0.155577906905 -0.247453952662 -0.0586934510693 -0.170679256194 -0.343747687114 0.265990974527 -0.16036871193 -0.101812502725 0.0218786751068 -0.318225587834 0.124733030859 -0.0149688873476 -0.0802576105339 -0.0972870557429 0.0390059987875 -0.0524272747764 0.418196570895 -0.00108381359682 0.104919111133 -0.332086814327 0.0783388706701 -0.226486512612 0.269244765515 0.0883024470716 -0.247968937491 -0.0573915489718 0.0174568703107 -0.0463373218455 0.0307563830248 -0.133747413602 0.0677245506954 -0.030557358193 -0.0259687229229 -0.147578993594 0.563342207748 0.21030672006 -0.0627200269912 0.196807189961 0.12680841602 0.0385693965554 0.0120991280472 0.0468855889854 -0.0822258184892 -0.10793876966 -0.159594161615 -0.172445971379 0.122967583158 -0.544539613195 0.132176649956 -0.102952719041 -0.0615762106291 -0.174816049639 0.115701172742 0.321031248757 -0.361304102717 0.313049881467 0.119237870906 0.0746577156816 -0.122383900579 -0.130722393598 0.113513987729 -0.089403015834 -0.10416244879 -0.0575750152473 -0.0645286237996 0.117454972639 0.323693811494 0.646784338044 -0.431839524644 -0.044013685793 -0.425247979559 -0.487648412512 0.147044009086 -0.120795110647
14 0.250555082176 0.104740882307 0.090050898406 -0.0996124338321 0.203286446973 -0.0509730237502 -0.153501861866 -0.0793960407925 -0.0818284256732 0.47045961248 -0.00155717870776 -0.0867892406915 -0.165063062474 -0.259605102445 0.0573814793935 -0.267336679773 0.228956460521 0.0118158342744 0.150765805576 0.0087520081479 -0.0112355334258 0.063191801439 0.107309965595 0.181878206014 -0.0986970578131 0.469075433494 -0.0363922488003 0.0706675569758 -0.0890973185122 -0.154205623957 -0.057759285348 0.249181632843 -0.117518877503 -0.0466075302254 0.0498157624283 0.0798821898096 -0.103737318907 -0.0753837089837 -0.0200642144375 -0.185150664991 0.309794997096 0.123372926748 0.192713647688 -0.0753026143657 -0.115282001236 -0.0554180161284 -0.114968038653 -0.0872616565398 -0.450508385245 -0.221498904568 -0.453790816644 0.530737506791 0.20497897639 0.447798047204 0.155577906905 -0.247453952662 -0.0586934510693 -0.170679256194 -0.343747687114 0.265990974527 -0.16036871193 -0.101812502725 0.0218786751068 -0.318225587834 0.124733030859 -0.0149688873476 -0.0802576105339 -0.0972870557429 0.0390059987875 -0.0524272747764 0.418196570895 -0.00108381359682 0.104919111133 -0.332086814327 0.0783388706701 -0.226486512612 0.269244765515 0.0883024470716 -0.247968937491 -0.0573915489718 0.0174568703107 -0.0463373218455 0.0307563830248 -0.133747413602 0.0677245506954 -0.030557358193 -0.0259687229229 -0.147578993594 0.563342207748 0.21030672006 -0.0627200269912 0.196807189961 0.12680841602 0.0385693965554 0.0120991280472 0.0468855889854 -0.0822258184892 -0.10793876966 -0.159594161615 -0.172445971379 0.122967583158 -0.544539613195 0.132176649956 -0.102952719041 -0.0615762106291 -0.174816049639 0.115701172742 0.321031248757 -0.361304102717 0.313049881467 0.119237870906 0.0746577156816 -0.122383900579 -0.130722393598 0.113513987729 -0.089403015834 -0.10416244879 -0.0575750152473 -0.0645286237996 0.117454972639 0.323693811494 0.646784338044 -0.431839524644 -0.044013685793 -0.425247979559 -0.487648412512 0.147044009086 -0.120795110647
17 0.267672006431 0.039703631041 0.0280674869118 -0.0380093873869 0.235080135086 -0.0242604550783 -0.113979818362 -0.0955906110839 0.0387662493778 0.427643168563 -0.0160225225827 -0.0338135364687 -0.115382559507 -0.172691895767 -0.0173036478103 -0.340184920356 0.190661069251 -0.0728955843179 0.137327294334 -0.022792886848 0.0388523061854 0.148509825854 0.0622204129557 0.17670053648 -0.141216778135 0.48241749377 -0.013726265209 -0.00549569912618 -0.033384774918 -0.152760812788 -0.124827516769 0.232672539721 -0.0840154726425 0.0867323061263 0.0218453417934 0.157722540014 0.0511579563667 -0.0909653499549 0.0380296319904 -0.155403580546 0.32949330817 0.214999883377 0.211104732549 -0.111780550276 -0.086892685393 -0.0698989578459 -0.168656954824 -0.103154278763 -0.510629869605 -0.254014946832 -0.349287602551 0.528051610094 0.275253369786 0.413673033151 0.2103042117 -0.287874317166 0.0654458494462 -0.219268960542 -0.298960133711 0.27645338963 -0.0784203140935 -0.107241223673 -0.0194186933105 -0.38174811858 0.0201523928893 0.0103004257568 -0.0731214520243 -0.0323191655078 0.049887254262 -0.126010642855 0.397299173298 -0.0237637122792 0.186370599605 -0.308343034381 0.0873680016607 -0.342500768528 0.423235482984 0.03875251058 -0.251968542 -0.0342379120601 0.0753871680089 -0.0390657957151 0.0668336587591 -0.142248543409 0.0612169174557 0.00121660445602 -0.120573502459 -0.0928037989365 0.515961897416 0.229912023083 -0.0221448796984 0.155705876105 0.121081150237 0.0653354979201 0.0687855182006 0.0861681547684 0.0309807776978 -0.0976652880534 -0.100992215333 -0.139337667771 0.104468984522 -0.474773370149 0.143009904618 -0.154244630878 -0.0513014716243 -0.146009462058 0.12012407615 0.207616266888 -0.322085017872 0.386309790859 0.151512119935 0.0343497918542 -0.101115644916 -0.100612629661 0.0273518570004 -0.120484932257 -0.11850085787 0.016823829557 -0.145648754751 0.157083129129 0.281368347517 0.614976585009 -0.398713723134 -0.0138024054049 -0.367201399185 -0.449374015117 0.130984960147 -0.150897467583
16 0.194058027052 0.160333824601 0.0240610067207 -0.00109823493953 0.142692430471 -0.0498141567586 -0.115317845389 -0.0435460695907 0.045711079785 0.495278769379 0.0139159227107 -0.118516181981 -0.101387706448 -0.169320066591 0.0353995309643 -0.367728421342 0.211551973596 -0.0526658856058 0.18021365942 -0.0803747541505 0.0632111102501 0.0429855237539 0.0697079579164 0.177752002704 -0.183869061568 0.545023407639 -0.050918747407 -0.0240642951918 0.00714967763843 -0.108464714336 -0.0664540455206 0.237451242642 -0.116041976842 0.0807799767605 0.0625455227662 0.199389334147 -0.134808447148 -0.112652565161 -0.00612855154619 -0.140171246474 0.309105384937 0.151094536527 0.216919449055 -0.128646572754 0.0394987198274 -0.00147987361198 -0.0604432565177 -0.0502179889265 -0.467441158204 -0.279054098222 -0.392883225134 0.443491572226 0.299096440859 0.400589723129 0.226059520982 -0.187053508315 0.0846371363517 -0.255945669205 -0.271705268875 0.191828356171 -0.125470575959 -0.106363577365 0.065926707262 -0.334096032837 0.0818762217475 -0.0277036286572 0.00433220107986 -0.0754110412901 0.011557655221 -0.164173544871 0.389085901369 -0.0359023400115 0.1885469415 -0.322656662207 0.229824188059 -0.237341928254 0.342335589431 0.0078179359317 -0.333990592016 -0.016468891915 0.0024117302021 0.0354323639039 0.123878747134 -0.147922097514 0.164162207541 0.0335677758735 -0.042005908026 -0.102050432444 0.589380260975 0.348134950157 -0.0937926468579 0.265735336004 0.0440846931016 0.12333874619 0.0197728550062 0.0630478971238 -0.0123012707698 -0.136566336084 -0.218454641533 -0.0307167010054 0.0788103057527 -0.448518447421 0.0622364223431 -0.103509044182 -0.0457722819375 -0.245236784742 0.0978038247973 0.13008941797 -0.363930116313 0.302605047289 0.116647440095 0.00593197930274 -0.09204966831 -0.151844315128 0.119782186024 -0.151878696982 -0.119020244113 0.0998459928885 -0.152024080431 0.0457205011613 0.328201019578 0.611795476669 -0.516444452268 -0.0201124688427 -0.350248156768 -0.449043844255 0.153284519256 -0.0829113528635
19 0.267681922594 0.0397055885651 0.0280685771707 -0.0380079981117 0.235079970999 -0.0242655001895 -0.113995706451 -0.0955952757062 0.0387683011733 0.427633633833 -0.0160333677579 -0.0338199547688 -0.115392482183 -0.17269359527 -0.017309882427 -0.340179415041 0.190653385977 -0.0728996413839 0.137333546729 -0.0227851744652 0.0388545825785 0.148515048886 0.0622200187634 0.176691937898 -0.141218922185 0.482411663626 -0.0137315013915 -0.00549531775839 -0.0333795005571 -0.152769484322 -0.124846080934 0.232678957548 -0.0840227212819 0.0867216978607 0.0218359000231 0.157706944152 0.0511494642715 -0.0909534675138 0.0380230278617 -0.155411175209 0.329498032035 0.214999755141 0.2111106878 -0.111777152224 -0.0868925677932 -0.0699051414203 -0.168669000068 -0.103150496245 -0.510614734674 -0.254011331724 -0.349289531764 0.528051115304 0.275255425626 0.413673870718 0.210307300989 -0.287880834304 0.0654553826915 -0.219273835527 -0.298955729019 0.276454690965 -0.07841716354 -0.10724110364 -0.0194137688025 -0.381746319312 0.0201499791387 0.0103046464267 -0.0731264362656 -0.0323210800778 0.0498937453635 -0.12600503922 0.397303458365 -0.023759528767 0.186369700803 -0.308344326589 0.0873632137752 -0.342504576502 0.423235174859 0.0387569561023 -0.251970811872 -0.0342425428123 0.0753896787269 -0.0390630091082 0.0668364669502 -0.142245986296 0.0612265557615 0.00121491855463 -0.120581922635 -0.0928072165661 0.515960385303 0.229915537633 -0.0221452011233 0.155715419814 0.121086812922 0.0653280457688 0.0687841458087 0.086167328181 0.0309829141936 -0.0976634260289 -0.100987293814 -0.139342434852 0.104469100304 -0.474783443823 0.143010279816 -0.154235287168 -0.0512949671921 -0.146024362974 0.120120645718 0.207620604425 -0.322092509854 0.386322967751 0.151518343454 0.0343551776521 -0.101116657341 -0.100607820421 0.0273515424798 -0.120496175307 -0.118498950291 0.0168241624162 -0.145645125901 0.157069875723 0.281369436886 0.614975093378 -0.398712800156 -0.013806732241 -0.367203875227 -0.449385984859 0.130982217725 -0.150899477682
18 0.250555082176 0.104740882307 0.090050898406 -0.0996124338321 0.203286446973 -0.0509730237502 -0.153501861866 -0.0793960407925 -0.0818284256732 0.47045961248 -0.00155717870776 -0.0867892406915 -0.165063062474 -0.259605102445 0.0573814793935 -0.267336679773 0.228956460521 0.0118158342744 0.150765805576 0.0087520081479 -0.0112355334258 0.063191801439 0.107309965595 0.181878206014 -0.0986970578131 0.469075433494 -0.0363922488003 0.0706675569758 -0.0890973185122 -0.154205623957 -0.057759285348 0.249181632843 -0.117518877503 -0.0466075302254 0.0498157624283 0.0798821898096 -0.103737318907 -0.0753837089837 -0.0200642144375 -0.185150664991 0.309794997096 0.123372926748 0.192713647688 -0.0753026143657 -0.115282001236 -0.0554180161284 -0.114968038653 -0.0872616565398 -0.450508385245 -0.221498904568 -0.453790816644 0.530737506791 0.20497897639 0.447798047204 0.155577906905 -0.247453952662 -0.0586934510693 -0.170679256194 -0.343747687114 0.265990974527 -0.16036871193 -0.101812502725 0.0218786751068 -0.318225587834 0.124733030859 -0.0149688873476 -0.0802576105339 -0.0972870557429 0.0390059987875 -0.0524272747764 0.418196570895 -0.00108381359682 0.104919111133 -0.332086814327 0.0783388706701 -0.226486512612 0.269244765515 0.0883024470716 -0.247968937491 -0.0573915489718 0.0174568703107 -0.0463373218455 0.0307563830248 -0.133747413602 0.0677245506954 -0.030557358193 -0.0259687229229 -0.147578993594 0.563342207748 0.21030672006 -0.0627200269912 0.196807189961 0.12680841602 0.0385693965554 0.0120991280472 0.0468855889854 -0.0822258184892 -0.10793876966 -0.159594161615 -0.172445971379 0.122967583158 -0.544539613195 0.132176649956 -0.102952719041 -0.0615762106291 -0.174816049639 0.115701172742 0.321031248757 -0.361304102717 0.313049881467 0.119237870906 0.0746577156816 -0.122383900579 -0.130722393598 0.113513987729 -0.089403015834 -0.10416244879 -0.0575750152473 -0.0645286237996 0.117454972639 0.323693811494 0.646784338044 -0.431839524644 -0.044013685793 -0.425247979559 -0.487648412512 0.147044009086 -0.120795110647
31 0.230816419981 0.148425198438 0.0984210476786 -0.0856275474045 0.131237032269 -0.00179040882325 -0.081677702458 -0.0566784192198 0.0297626018387 0.462445750551 -0.0327619587798 0.0327103731184 -0.152431692377 -0.153056418142 0.000521233449764 -0.384764399321 0.0714333554289 0.0245929754429 0.117424258232 -0.0602410472057 0.0812228114381 0.108808773717 0.0496638692799 0.190421801034 -0.0588232674535 0.535643858121 0.0307122919671 0.0453649040035 -0.0506178400472 -0.152271218371 -0.0373339985506 0.29345471608 -0.0583762041557 -0.0106179008408 0.0234104331584 0.1071285551 -0.024983998383 -0.0806119275358 0.00910490634306 -0.201316775451 0.336636365095 0.171578206438 0.268346556907 -0.120368334625 -0.0663635883971 -0.0225427861461 0.0136796402383 0.0218142546216 -0.463419945675 -0.274857484779 -0.352586616393 0.546482769663 0.298759574295 0.407619473245 0.221956880475 -0.290050005021 0.130307451727 -0.213713488627 -0.303786679639 0.26891204322 -0.132972962345 -0.00904079057129 0.0213741389202 -0.280097807692 -0.0259330781242 -0.0475596403781 0.0688907499289 -0.115387588712 0.0268915473837 -0.127180083817 0.362401315408 -0.0372288799971 0.104592149714 -0.299067451637 0.179991003592 -0.272184943847 0.25790047796 0.0250199642994 -0.46338210597 0.0382981581045 0.0802431796262 -0.0766696322974 0.0984043784346 -0.0835268204207 0.122852573727 0.0442335790278 -0.0864585692917 -0.132748381563 0.495123846749 0.270591093657 -0.0762308733989 0.235015172747 0.0293291031805 0.0513316060464 0.0868773402583 0.0946884605299 -0.044987355941 -0.157922835382 -0.0974346554873 -0.212498658114 0.0929859720153 -0.495450044945 0.0460007541482 -0.142595823809 -0.0466222644233 -0.195075553136 0.101555637858 0.159147651944 -0.370261102394 0.31359689752 0.113105231114 0.0889851838472 -0.0803892732298 -0.162132058346 0.070111150786 -0.114544523791 -0.148868465839 0.128665549576 -0.098240806841 0.104125412567 0.343808750256 0.559316211591 -0.40427224776 0.0355751172489 -0.333104627761 -0.444274149632 0.155773738494 -0.0862086400418
30 0.250546564879 0.104740232739 0.0900440219531 -0.0996088948029 0.203279557155 -0.0509757680069 -0.153501704639 -0.0794054329213 -0.0818311682126 0.47045333839 -0.00155304099653 -0.0867808141516 -0.165063599724 -0.259603619558 0.0573848872537 -0.267338828308 0.228951585288 0.0118156599878 0.150766679991 0.00875294985322 -0.0112406214592 0.0631885297466 0.107310545396 0.181865508745 -0.0986960217445 0.469067867723 -0.0363960677296 0.0706604486259 -0.089089931037 -0.154197888112 -0.0577619987284 0.24918529888 -0.117517617216 -0.0466110488836 0.0498140794653 0.0798964401248 -0.103737845705 -0.0753744003655 -0.0200660428996 -0.185156323527 0.30980330856 0.123381753778 0.192708223155 -0.0753006472534 -0.115289407276 -0.055420158902 -0.114971927379 -0.087263667934 -0.450518962453 -0.221502353944 -0.453794775587 0.530739754891 0.204969256625 0.447805024218 0.15557395547 -0.247435483935 -0.0586795029966 -0.170691482873 -0.343753664085 0.266002914077 -0.160371657512 -0.101805261314 0.021879114031 -0.318221195175 0.124730908798 -0.0149810083901 -0.0802592086481 -0.0972802378077 0.0390005235693 -0.0524204842817 0.418197943686 -0.00108680974336 0.104920963896 -0.332092970559 0.0783389222106 -0.226478271429 0.269229071722 0.0883055279214 -0.247968326672 -0.0573929909861 0.0174657988095 -0.0463225286044 0.030756255486 -0.133744938802 0.0677142504426 -0.0305638978199 -0.025972425071 -0.147577727661 0.563340948809 0.210318430556 -0.062713199832 0.196809571471 0.126804375368 0.0385752000898 0.0120883564217 0.0468887794253 -0.0822188166443 -0.107929664458 -0.159594354126 -0.172435789122 0.122963677654 -0.544547663208 0.132168530008 -0.102941133004 -0.0615761551561 -0.174816966324 0.115706980613 0.321025990775 -0.361301305193 0.313053463015 0.119240649164 0.0746638425243 -0.122383296461 -0.130729188877 0.113517785806 -0.0893951061066 -0.104172392177 -0.0575710786686 -0.0645291311306 0.117454644737 0.323699864569 0.646790012496 -0.431841289854 -0.0440149632108 -0.425249753079 -0.487654224762 0.147046504723 -0.120787378725
33 0.250555082176 0.104740882307 0.090050898406 -0.0996124338321 0.203286446973 -0.0509730237502 -0.153501861866 -0.0793960407925 -0.0818284256732 0.47045961248 -0.00155717870776 -0.0867892406915 -0.165063062474 -0.259605102445 0.0573814793935 -0.267336679773 0.228956460521 0.0118158342744 0.150765805576 0.0087520081479 -0.0112355334258 0.063191801439 0.107309965595 0.181878206014 -0.0986970578131 0.469075433494 -0.0363922488003 0.0706675569758 -0.0890973185122 -0.154205623957 -0.057759285348 0.249181632843 -0.117518877503 -0.0466075302254 0.0498157624283 0.0798821898096 -0.103737318907 -0.0753837089837 -0.0200642144375 -0.185150664991 0.309794997096 0.123372926748 0.192713647688 -0.0753026143657 -0.115282001236 -0.0554180161284 -0.114968038653 -0.0872616565398 -0.450508385245 -0.221498904568 -0.453790816644 0.530737506791 0.20497897639 0.447798047204 0.155577906905 -0.247453952662 -0.0586934510693 -0.170679256194 -0.343747687114 0.265990974527 -0.16036871193 -0.101812502725 0.0218786751068 -0.318225587834 0.124733030859 -0.0149688873476 -0.0802576105339 -0.0972870557429 0.0390059987875 -0.0524272747764 0.418196570895 -0.00108381359682 0.104919111133 -0.332086814327 0.0783388706701 -0.226486512612 0.269244765515 0.0883024470716 -0.247968937491 -0.0573915489718 0.0174568703107 -0.0463373218455 0.0307563830248 -0.133747413602 0.0677245506954 -0.030557358193 -0.0259687229229 -0.147578993594 0.563342207748 0.21030672006 -0.0627200269912 0.196807189961 0.12680841602 0.0385693965554 0.0120991280472 0.0468855889854 -0.0822258184892 -0.10793876966 -0.159594161615 -0.172445971379 0.122967583158 -0.544539613195 0.132176649956 -0.102952719041 -0.0615762106291 -0.174816049639 0.115701172742 0.321031248757 -0.361304102717 0.313049881467 0.119237870906 0.0746577156816 -0.122383900579 -0.130722393598 0.113513987729 -0.089403015834 -0.10416244879 -0.0575750152473 -0.0645286237996 0.117454972639 0.323693811494 0.646784338044 -0.431839524644 -0.044013685793 -0.425247979559 -0.487648412512 0.147044009086 -0.120795110647
32 0.250555082176 0.104740882307 0.090050898406 -0.0996124338321 0.203286446973 -0.0509730237502 -0.153501861866 -0.0793960407925 -0.0818284256732 0.47045961248 -0.00155717870776 -0.0867892406915 -0.165063062474 -0.259605102445 0.0573814793935 -0.267336679773 0.228956460521 0.0118158342744 0.150765805576 0.0087520081479 -0.0112355334258 0.063191801439 0.107309965595 0.181878206014 -0.0986970578131 0.469075433494 -0.0363922488003 0.0706675569758 -0.0890973185122 -0.154205623957 -0.057759285348 0.249181632843 -0.117518877503 -0.0466075302254 0.0498157624283 0.0798821898096 -0.103737318907 -0.0753837089837 -0.0200642144375 -0.185150664991 0.309794997096 0.123372926748 0.192713647688 -0.0753026143657 -0.115282001236 -0.0554180161284 -0.114968038653 -0.0872616565398 -0.450508385245 -0.221498904568 -0.453790816644 0.530737506791 0.20497897639 0.447798047204 0.155577906905 -0.247453952662 -0.0586934510693 -0.170679256194 -0.343747687114 0.265990974527 -0.16036871193 -0.101812502725 0.0218786751068 -0.318225587834 0.124733030859 -0.0149688873476 -0.0802576105339 -0.0972870557429 0.0390059987875 -0.0524272747764 0.418196570895 -0.00108381359682 0.104919111133 -0.332086814327 0.0783388706701 -0.226486512612 0.269244765515 0.0883024470716 -0.247968937491 -0.0573915489718 0.0174568703107 -0.0463373218455 0.0307563830248 -0.133747413602 0.0677245506954 -0.030557358193 -0.0259687229229 -0.147578993594 0.563342207748 0.21030672006 -0.0627200269912 0.196807189961 0.12680841602 0.0385693965554 0.0120991280472 0.0468855889854 -0.0822258184892 -0.10793876966 -0.159594161615 -0.172445971379 0.122967583158 -0.544539613195 0.132176649956 -0.102952719041 -0.0615762106291 -0.174816049639 0.115701172742 0.321031248757 -0.361304102717 0.313049881467 0.119237870906 0.0746577156816 -0.122383900579 -0.130722393598 0.113513987729 -0.089403015834 -0.10416244879 -0.0575750152473 -0.0645286237996 0.117454972639 0.323693811494 0.646784338044 -0.431839524644 -0.044013685793 -0.425247979559 -0.487648412512 0.147044009086 -0.120795110647